
\data\
ngram 1=9
ngram 2=19
ngram 3=13

\1-grams:
-0.7403627	one	-0.7715206
-1.342423		-0.4900863
-0.6434527	two	-0.8159397
-1.041393	three	-0.7579479
-1.041393	four	-0.6787666
-1.166331	eight	-0.5606673
-1.166331	nine	-0.5606673
-0.6434527	</s>
-99	<s>	-0.8507019

\2-grams:
-0.5228788	one one	-0.30103
-0.2218488	one two	-0.5952207
-0.4259687	two two	-0.7501226
-0.7269987	two eight	-0.30103
-0.7269987	two nine	-0.30103
-0.7269987	two </s>
-0.3679768	three three	-0.455932
-0.3679768	three four	-0.455932
-0.3679768	four four	-0.455932
-0.3679768	four </s>
-0.2218488	eight </s>
-0.2218488	nine </s>
-0.30103	<s> one	0.04575729
-0.60206	<s> three	-0.455932
-1.079181	<s> eight
-1.079181	<s> nine

\3-grams:
-0.09691001	one one two
-0.3521825	<s> one one
-0.3521825	<s> one two
-0.3521825	one two two
-0.3521825	one two nine
-0.3521825	two two eight
-0.3521825	two two </s>
-0.09691001	three three four
-0.09691001	<s> three three
-0.09691001	three four four
-0.09691001	four four </s>
-0.09691001	two eight </s>
-0.09691001	two nine </s>

\end\
