channel 通道 1.000000
speed 速度 1.000000
cray 克 1.000000
ministry 外经贸部 0.200000
conference 会上 1.000000
up 清理 0.500000
by 记者 0.200000
NULL 电 0.333333
by 的 0.100000
established 结成 1.000000
return 还 1.000000
NULL 有关 1.000000
-RRB- 总裁 1.000000
scientists 科学家 0.500000
80 多个 1.000000
500 个 0.500000
cray 司 1.000000
that 表示 0.250000
reporter ( 0.333333
new 新技术 0.500000
22 二十二日 0.500000
economic 经济 1.000000
chao 钞 1.000000
than 余 0.500000
town 小城镇 0.500000
by NULL 0.017241
to 前来 0.500000
-LRB- ( 0.333333
with 同 1.000000
level 高 0.500000
tax 退税 0.500000
chinese 中国 0.200000
NULL 开发区 0.166667
xinhua 新华社 0.250000
high 高 0.500000
work 工作 1.000000
basis 依托 0.500000
operations NULL 0.017241
friendship 友好 1.000000
countries 国家 1.000000
800 八百 1.000000
exceeding 超过 1.000000
nd 二十二日 0.500000
NULL 次 1.000000
cray 雷公 0.500000
that NULL 0.034483
trade 外经贸部 0.200000
an NULL 0.017241
be 将 1.000000
software 软件 1.000000
fenglingdu 陵 1.000000
on NULL 0.034483
NULL 尊敬 1.000000
also 也是 0.333333
and 科技 0.500000
of NULL 0.172414
came 前来 0.500000
world 对外 0.250000
should 要 0.333333
project 项目 1.000000
province 省份 1.000000
technological 科技 0.250000
their 表示 0.250000
1000 1000 1.000000
technology 新技术 0.500000
NULL 大计 1.000000
' ’ 1.000000
, 二月 0.500000
integrated 结合 1.000000
export 出口 1.000000
as 等 0.333333
companies 开发公司 0.500000
developed 开发 1.000000
, , 0.714286
deductions 期 1.000000
computing 算 1.000000
reporter 记者 0.400000
which NULL 0.017241
, 新华社 0.250000
302,464 六十四 1.000000
up 截止 1.000000
that 说 0.500000
valley 硅谷 0.500000
chaozhou 潮 1.000000
computer 计算机 1.000000
negotiate 洽谈 1.000000
more 五百多 0.333333
and 外经贸部 0.200000
302,464 四百 1.000000
cities 城市 1.000000
held 举行 1.000000
industries 产业 1.000000
president 摩托罗拉 0.333333
from 来自 1.000000
inc 雷公 0.500000
sun 孙 1.000000
association 协会 1.000000
80 八十 1.000000
reached 达 1.000000
-RRB- ) 0.333333
and 、 0.400000
sold 卖给 0.500000
in NULL 0.068966
outside 对外 0.250000
today 如今 1.000000
2.5 二十五 1.000000
and NULL 0.017241
foreign 外商 1.000000
302,464 二千 1.000000
hunan 湖南 1.000000
' NULL 0.017241
motorola 摩托罗拉 0.333333
NULL 人员 1.000000
23 二十三日 0.500000
from 从 0.500000
dawn 曙光 1.000000
the 底 0.500000
establishing 设立 0.500000
reporter 电 0.333333
such 等 0.333333
NULL 已 0.166667
come 到 0.500000
zunjing 电 0.333333
live NULL 0.017241
is 是 0.500000
firms 厂商 1.000000
pairs 对 1.000000
integrated 起来 1.000000
zhiping 志 1.000000
this 记者 0.200000
new 新 1.000000
zone 开发区 0.500000
cities 个 0.500000
to NULL 0.034483
from NULL 0.017241
the NULL 0.241379
-LRB- 摩托罗拉 0.333333
zunjing ( 0.333333
has 已 0.333333
have NULL 0.017241
ericsson 公司 1.000000
taxes 税 1.000000
people ” 0.500000
investment 投资 1.000000
have 已 0.166667
contact 联系 1.000000
china 中国 0.800000
built 建成 1.000000
development 开发公司 0.500000
world 世界 1.000000
in 在 0.666667
the 是 0.500000
tax 税收 0.500000
end 完 1.000000
within 境内 0.500000
over NULL 0.017241
a NULL 0.034483
expressed 表示 0.250000
learned 从 0.500000
while ; 0.500000
march 三月 1.000000
rd 二十三日 0.500000
foreign 对外 0.500000
revenue 税收 0.500000
silicon “ 1.000000
, 北京 0.500000
approved 批准 1.000000
cities 市 1.000000
for NULL 0.017241
fenglingdu 渡 1.000000
is 也是 0.333333
beginning 初 1.000000
year 今年 0.500000
silicon 硅谷 0.500000
500 五百多 0.333333
inventories 存货 1.000000
on 依托 0.500000
only 唯一 1.000000
this 今年 0.500000
total 累计 1.000000
from 科学家 0.500000
rebates 退税 0.500000
says 说 0.500000
reporters 记者 0.200000
302,464 三十 1.000000
kong 香港 0.500000
some NULL 0.017241
latest NULL 0.017241
fenglingdu 风 0.500000
imposed 抵扣 1.000000
desire 意愿 1.000000
, NULL 0.103448
february 二月 0.500000
NULL 申 1.000000
the 风 0.500000
closely 紧密 1.000000
etc. 等 0.333333
said 表示 0.250000
the 美国 0.500000
302,464 万 1.000000
, 款 1.000000
302,464 最新消息 1.000000
zone 内 1.000000
to 到 0.500000
some 一些 1.000000
hong 香港 0.500000
a 设立 0.500000
zhiping 平 1.000000
beijing 北京 0.500000
than 五百多 0.333333
second 秒 1.000000
maximum ‘ 1.000000
billion 亿 1.000000
small 小城镇 0.500000
enterprises 家 1.000000
november 十一月 1.000000
zone 区 1.000000
. . 1.000000
news NULL 0.017241
, 、 0.600000
overdue 欠 1.000000
NULL ) 0.333333
shen NULL 0.017241
of 的 0.100000
chaozhou 旅居 1.000000
from 籍 1.000000
december 十二月 1.000000
enterprises 企业 1.000000
NULL 的 0.800000
and 与 1.000000
taiwan 台湾 1.000000
scientific 科技 0.250000
about 有约 1.000000
through NULL 0.017241
would 要 0.333333
news 新华社 0.250000
was 获悉 1.000000
return 返 1.000000
foreign 外经贸部 0.200000
us 美国 0.500000
economy 外经贸部 0.200000
borders 境内 0.500000
they 要 0.333333
lanzhou 兰州 1.000000
more 余 0.500000
clearing 清理 0.500000
it 也是 0.333333
to 卖给 0.500000
taxes 征税 1.000000
. , 0.142857
200 二百 1.000000
also 也 1.000000
the 在 0.333333
" ” 0.500000
. ; 0.500000
end 底 0.500000
recently 日前 1.000000
us 我们 0.500000
exchange 交流 1.000000
wen 文 1.000000
inland 内陆 1.000000
provinces 省 1.000000
one 一个 1.000000
we 我们 0.500000
already 已 0.333333
per 每 1.000000
ourselves 自己 1.000000
sun ) 0.333333
establish 创办 1.000000
302,464 零 1.000000
the 最 1.000000
agency 新华社 0.250000
shanxi 山西省 1.000000
, 则 1.000000
that , 0.142857
development 开发区 0.333333
some 部分 1.000000
ericsson 爱立信 1.000000
