通道 channel 1.000000
速度 speed 1.000000
克 cray 0.333333
外经贸部 ministry 1.000000
会上 conference 1.000000
清理 up 0.500000
记者 by 0.333333
电 NULL 0.055556
的 by 0.333333
结成 established 1.000000
还 return 0.500000
有关 NULL 0.055556
总裁 -RRB- 0.500000
科学家 scientists 1.000000
多个 80 0.500000
个 500 0.500000
司 cray 0.333333
表示 that 0.200000
( reporter 0.250000
新技术 new 0.500000
二十二日 22 1.000000
经济 economic 1.000000
钞 chao 1.000000
余 than 0.500000
小城镇 town 1.000000
NULL by 0.333333
前来 to 0.200000
( -LRB- 0.500000
同 with 1.000000
高 level 1.000000
退税 tax 0.500000
中国 chinese 1.000000
开发区 NULL 0.055556
新华社 xinhua 1.000000
高 high 1.000000
工作 work 1.000000
依托 basis 1.000000
NULL operations 1.000000
友好 friendship 1.000000
国家 countries 1.000000
八百 800 1.000000
超过 exceeding 1.000000
二十二日 nd 1.000000
次 NULL 0.055556
雷公 cray 0.333333
NULL that 0.400000
外经贸部 trade 1.000000
NULL an 1.000000
将 be 1.000000
软件 software 1.000000
陵 fenglingdu 0.333333
NULL on 0.666667
尊敬 NULL 0.055556
也是 also 0.500000
科技 and 0.285714
NULL of 0.909091
前来 came 1.000000
对外 world 0.500000
要 should 1.000000
项目 project 1.000000
省份 province 1.000000
科技 technological 1.000000
表示 their 1.000000
1000 1000 1.000000
新技术 technology 1.000000
大计 NULL 0.055556
’ ' 0.500000
二月 , 0.047619
结合 integrated 0.500000
出口 export 1.000000
等 as 1.000000
开发公司 companies 1.000000
开发 developed 1.000000
, , 0.238095
期 deductions 1.000000
算 computing 1.000000
记者 reporter 0.500000
NULL which 1.000000
新华社 , 0.142857
六十四 302,464 0.142857
截止 up 0.500000
说 that 0.200000
硅谷 valley 1.000000
潮 chaozhou 0.500000
计算机 computer 1.000000
洽谈 negotiate 1.000000
五百多 more 0.500000
外经贸部 and 0.142857
四百 302,464 0.142857
城市 cities 0.600000
举行 held 1.000000
产业 industries 1.000000
摩托罗拉 president 1.000000
来自 from 0.200000
雷公 inc 1.000000
孙 sun 0.500000
协会 association 1.000000
八十 80 0.500000
达 reached 1.000000
) -RRB- 0.500000
、 and 0.285714
卖给 sold 1.000000
NULL in 0.666667
对外 outside 1.000000
如今 today 1.000000
二十五 2.5 1.000000
NULL and 0.142857
外商 foreign 0.250000
二千 302,464 0.142857
湖南 hunan 1.000000
NULL ' 0.500000
摩托罗拉 motorola 1.000000
人员 NULL 0.055556
二十三日 23 1.000000
从 from 0.200000
曙光 dawn 1.000000
底 the 0.050000
设立 establishing 1.000000
电 reporter 0.250000
等 such 1.000000
已 NULL 0.055556
到 come 1.000000
电 zunjing 0.500000
NULL live 1.000000
是 is 0.500000
厂商 firms 1.000000
对 pairs 1.000000
起来 integrated 0.500000
志 zhiping 0.500000
记者 this 0.500000
新 new 0.500000
开发区 zone 0.500000
个 cities 0.200000
NULL to 0.400000
NULL from 0.200000
NULL the 0.700000
摩托罗拉 -LRB- 0.500000
( zunjing 0.500000
已 has 1.000000
NULL have 0.500000
公司 ericsson 0.500000
税 taxes 0.500000
” people 1.000000
投资 investment 1.000000
已 have 0.500000
联系 contact 1.000000
中国 china 1.000000
建成 built 1.000000
开发公司 development 0.333333
世界 world 0.500000
在 in 0.333333
是 the 0.050000
税收 tax 0.500000
完 end 0.500000
境内 within 1.000000
NULL over 1.000000
NULL a 0.666667
表示 expressed 1.000000
从 learned 1.000000
; while 1.000000
三月 march 1.000000
二十三日 rd 1.000000
对外 foreign 0.500000
税收 revenue 1.000000
“ silicon 0.500000
北京 , 0.047619
批准 approved 1.000000
市 cities 0.200000
NULL for 1.000000
渡 fenglingdu 0.333333
也是 is 0.500000
初 beginning 1.000000
今年 year 1.000000
硅谷 silicon 0.500000
五百多 500 0.500000
存货 inventories 1.000000
依托 on 0.333333
唯一 only 1.000000
今年 this 0.500000
累计 total 1.000000
科学家 from 0.200000
退税 rebates 1.000000
说 says 1.000000
记者 reporters 1.000000
三十 302,464 0.142857
香港 kong 1.000000
NULL some 0.333333
NULL latest 1.000000
风 fenglingdu 0.333333
抵扣 imposed 1.000000
意愿 desire 1.000000
NULL , 0.285714
二月 february 1.000000
申 NULL 0.055556
风 the 0.050000
紧密 closely 1.000000
等 etc. 1.000000
表示 said 1.000000
美国 the 0.050000
万 302,464 0.142857
款 , 0.047619
最新消息 302,464 0.142857
内 zone 0.333333
到 to 0.200000
一些 some 0.333333
香港 hong 1.000000
设立 a 0.333333
平 zhiping 0.500000
北京 beijing 1.000000
五百多 than 0.500000
秒 second 1.000000
‘ maximum 1.000000
亿 billion 1.000000
小城镇 small 1.000000
家 enterprises 0.500000
十一月 november 1.000000
区 zone 0.166667
. . 0.750000
NULL news 0.250000
、 , 0.142857
欠 overdue 1.000000
) NULL 0.055556
NULL shen 1.000000
的 of 0.090909
旅居 chaozhou 0.500000
籍 from 0.200000
十二月 december 1.000000
企业 enterprises 0.500000
的 NULL 0.444444
与 and 0.142857
台湾 taiwan 1.000000
科技 scientific 1.000000
有约 about 1.000000
NULL through 1.000000
要 would 1.000000
新华社 news 0.750000
获悉 was 1.000000
返 return 0.500000
外经贸部 foreign 0.250000
美国 us 0.500000
外经贸部 economy 1.000000
境内 borders 1.000000
要 they 1.000000
兰州 lanzhou 1.000000
余 more 0.500000
清理 clearing 1.000000
也是 it 1.000000
卖给 to 0.200000
征税 taxes 0.500000
, . 0.125000
二百 200 1.000000
也 also 0.500000
在 the 0.050000
” " 1.000000
; . 0.125000
底 end 0.500000
日前 recently 1.000000
我们 us 0.500000
交流 exchange 1.000000
文 wen 1.000000
内陆 inland 1.000000
省 provinces 1.000000
一个 one 1.000000
我们 we 1.000000
已 already 1.000000
每 per 1.000000
自己 ourselves 1.000000
) sun 0.500000
创办 establish 1.000000
零 302,464 0.142857
最 the 0.050000
新华社 agency 1.000000
山西省 shanxi 1.000000
则 , 0.047619
, that 0.200000
开发区 development 0.666667
部分 some 0.333333
爱立信 ericsson 0.500000
